<?xml version="1.0"?>
<opencv_storage>
<cascade>
  <stageType>BOOST</stageType>
  <featureType>HAAR</featureType>
  <height>20</height>
  <width>20</width>
  <stageParams>
    <boostType>GAB</boostType>
    <minHitRate>9.9500000476837158e-01</minHitRate>
    <maxFalseAlarm>1.0000000298023224e-01</maxFalseAlarm>
    <weightTrimRate>9.4999999999999996e-01</weightTrimRate>
    <maxDepth>1</maxDepth>
    <maxWeakCount>100</maxWeakCount></stageParams>
  <featureParams>
    <maxCatCount>0</maxCatCount>
    <featSize>1</featSize>
    <mode>BASIC</mode></featureParams>
  <stageNum>5</stageNum>
  <stages>
    <!-- stage 0 -->
    <_>
      <maxWeakCount>3</maxWeakCount>
      <stageThreshold>8.6434793472290039e-01</stageThreshold>
      <weakClassifiers>
        <_>
          <internalNodes>
            0 -1 3 -7.6530552469193935e-03</internalNodes>
          <leafValues>
            6.0000002384185791e-01 -1.</leafValues></_>
        <_>
          <internalNodes>
            0 -1 0 -2.3388179019093513e-02</internalNodes>
          <leafValues>
            8.1296575069427490e-01 -4.8695632815361023e-01</leafValues></_>
        <_>
          <internalNodes>
            0 -1 11 -3.5882994532585144e-02</internalNodes>
          <leafValues>
            8.2930314540863037e-01 -5.4861783981323242e-01</leafValues></_></weakClassifiers></_>
    <!-- stage 1 -->
    <_>
      <maxWeakCount>4</maxWeakCount>
      <stageThreshold>2.5051447749137878e-01</stageThreshold>
      <weakClassifiers>
        <_>
          <internalNodes>
            0 -1 7 9.1935857199132442e-04</internalNodes>
          <leafValues>
            5.6739813089370728e-01 -1.</leafValues></_>
        <_>
          <internalNodes>
            0 -1 6 -1.0923187946900725e-03</internalNodes>
          <leafValues>
            -7.7222311496734619e-01 4.1385924816131592e-01</leafValues></_>
        <_>
          <internalNodes>
            0 -1 9 5.3785047493875027e-03</internalNodes>
          <leafValues>
            2.4042180180549622e-01 -1.</leafValues></_>
        <_>
          <internalNodes>
            0 -1 5 2.0050829334650189e-05</internalNodes>
          <leafValues>
            2.1491768956184387e-01 -1.</leafValues></_></weakClassifiers></_>
    <!-- stage 2 -->
    <_>
      <maxWeakCount>4</maxWeakCount>
      <stageThreshold>4.2104604840278625e-01</stageThreshold>
      <weakClassifiers>
        <_>
          <internalNodes>
            0 -1 10 -1.2833437649533153e-03</internalNodes>
          <leafValues>
            -1. 6.1030596494674683e-01</leafValues></_>
        <_>
          <internalNodes>
            0 -1 6 -1.0997416684404016e-03</internalNodes>
          <leafValues>
            -7.7770936489105225e-01 4.4295966625213623e-01</leafValues></_>
        <_>
          <internalNodes>
            0 -1 12 -1.2573783751577139e-03</internalNodes>
          <leafValues>
            -1. 2.8221774101257324e-01</leafValues></_>
        <_>
          <internalNodes>
            0 -1 1 -5.0730595830827951e-04</internalNodes>
          <leafValues>
            3.0623170733451843e-01 -8.2538670301437378e-01</leafValues></_></weakClassifiers></_>
    <!-- stage 3 -->
    <_>
      <maxWeakCount>5</maxWeakCount>
      <stageThreshold>7.5268931686878204e-02</stageThreshold>
      <weakClassifiers>
        <_>
          <internalNodes>
            0 -1 17 1.6058540495578200e-04</internalNodes>
          <leafValues>
            5.4738879203796387e-01 -1.</leafValues></_>
        <_>
          <internalNodes>
            0 -1 14 5.6641385890543461e-04</internalNodes>
          <leafValues>
            2.7740615606307983e-01 -1.</leafValues></_>
        <_>
          <internalNodes>
            0 -1 4 -1.4909068122506142e-02</internalNodes>
          <leafValues>
            8.7739175558090210e-01 -3.7686559557914734e-01</leafValues></_>
        <_>
          <internalNodes>
            0 -1 13 -5.9344887267798185e-04</internalNodes>
          <leafValues>
            4.7808557748794556e-01 -6.7841225862503052e-01</leafValues></_>
        <_>
          <internalNodes>
            0 -1 15 -1.7481540271546692e-04</internalNodes>
          <leafValues>
            -9.0069562196731567e-01 3.0575186014175415e-01</leafValues></_></weakClassifiers></_>
    <!-- stage 4 -->
    <_>
      <maxWeakCount>5</maxWeakCount>
      <stageThreshold>5.0130367279052734e-01</stageThreshold>
      <weakClassifiers>
        <_>
          <internalNodes>
            0 -1 16 1.7085354775190353e-03</internalNodes>
          <leafValues>
            5.3668844699859619e-01 -1.</leafValues></_>
        <_>
          <internalNodes>
            0 -1 13 -5.9362623142078519e-04</internalNodes>
          <leafValues>
            5.1922535896301270e-01 -6.4485049247741699e-01</leafValues></_>
        <_>
          <internalNodes>
            0 -1 8 3.4422785975039005e-03</internalNodes>
          <leafValues>
            -4.2413097620010376e-01 7.1825718879699707e-01</leafValues></_>
        <_>
          <internalNodes>
            0 -1 18 3.1219277530908585e-02</internalNodes>
          <leafValues>
            -3.4083682298660278e-01 7.4909681081771851e-01</leafValues></_>
        <_>
          <internalNodes>
            0 -1 2 1.9893544958904386e-04</internalNodes>
          <leafValues>
            3.3539927005767822e-01 -8.7957590818405151e-01</leafValues></_></weakClassifiers></_></stages>
  <features>
    <_>
      <rects>
        <_>
          0 0 4 5 -1.</_>
        <_>
          2 0 2 5 2.</_></rects>
      <tilted>0</tilted></_>
    <_>
      <rects>
        <_>
          0 16 14 2 -1.</_>
        <_>
          0 17 14 1 2.</_></rects>
      <tilted>0</tilted></_>
    <_>
      <rects>
        <_>
          1 2 6 2 -1.</_>
        <_>
          1 2 3 1 2.</_>
        <_>
          4 3 3 1 2.</_></rects>
      <tilted>0</tilted></_>
    <_>
      <rects>
        <_>
          1 6 14 12 -1.</_>
        <_>
          1 12 14 6 2.</_></rects>
      <tilted>0</tilted></_>
    <_>
      <rects>
        <_>
          2 0 4 2 -1.</_>
        <_>
          2 1 4 1 2.</_></rects>
      <tilted>0</tilted></_>
    <_>
      <rects>
        <_>
          2 10 3 2 -1.</_>
        <_>
          2 11 3 1 2.</_></rects>
      <tilted>0</tilted></_>
    <_>
      <rects>
        <_>
          3 9 3 8 -1.</_>
        <_>
          4 9 1 8 3.</_></rects>
      <tilted>0</tilted></_>
    <_>
      <rects>
        <_>
          3 9 3 10 -1.</_>
        <_>
          4 9 1 10 3.</_></rects>
      <tilted>0</tilted></_>
    <_>
      <rects>
        <_>
          4 0 4 2 -1.</_>
        <_>
          4 0 2 1 2.</_>
        <_>
          6 1 2 1 2.</_></rects>
      <tilted>0</tilted></_>
    <_>
      <rects>
        <_>
          4 4 4 14 -1.</_>
        <_>
          4 4 2 7 2.</_>
        <_>
          6 11 2 7 2.</_></rects>
      <tilted>0</tilted></_>
    <_>
      <rects>
        <_>
          4 10 4 6 -1.</_>
        <_>
          4 10 2 3 2.</_>
        <_>
          6 13 2 3 2.</_></rects>
      <tilted>0</tilted></_>
    <_>
      <rects>
        <_>
          5 2 9 4 -1.</_>
        <_>
          8 2 3 4 3.</_></rects>
      <tilted>0</tilted></_>
    <_>
      <rects>
        <_>
          9 11 4 6 -1.</_>
        <_>
          9 11 2 3 2.</_>
        <_>
          11 14 2 3 2.</_></rects>
      <tilted>0</tilted></_>
    <_>
      <rects>
        <_>
          10 14 4 2 -1.</_>
        <_>
          10 15 4 1 2.</_></rects>
      <tilted>0</tilted></_>
    <_>
      <rects>
        <_>
          12 8 4 2 -1.</_>
        <_>
          12 8 2 1 2.</_>
        <_>
          14 9 2 1 2.</_></rects>
      <tilted>0</tilted></_>
    <_>
      <rects>
        <_>
          15 1 4 16 -1.</_>
        <_>
          15 1 2 8 2.</_>
        <_>
          17 9 2 8 2.</_></rects>
      <tilted>0</tilted></_>
    <_>
      <rects>
        <_>
          15 3 2 10 -1.</_>
        <_>
          15 3 1 5 2.</_>
        <_>
          16 8 1 5 2.</_></rects>
      <tilted>0</tilted></_>
    <_>
      <rects>
        <_>
          15 7 1 3 -1.</_>
        <_>
          15 8 1 1 3.</_></rects>
      <tilted>0</tilted></_>
    <_>
      <rects>
        <_>
          16 0 4 12 -1.</_>
        <_>
          18 0 2 12 2.</_></rects>
      <tilted>0</tilted></_></features></cascade>
</opencv_storage>
